digraph Tree {
node [shape=box] ;
0 [label="OverTime <= 0.5\nentropy = 0.651\nsamples = 1029\nvalue = [857, 172]"] ;
1 [label="YearsWithCurrManager <= 0.5\nentropy = 0.463\nsamples = 723\nvalue = [652, 71]"] ;
0 -> 1 [labeldistance=2.5, labelangle=45, headlabel="True"] ;
2 [label="MonthlyIncome <= 2961.0\nentropy = 0.738\nsamples = 125\nvalue = [99, 26]"] ;
1 -> 2 ;
3 [label="HourlyRate <= 58.5\nentropy = 0.944\nsamples = 58\nvalue = [37, 21]"] ;
2 -> 3 ;
4 [label="DailyRate <= 1384.0\nentropy = 0.874\nsamples = 17\nvalue = [5, 12]"] ;
3 -> 4 ;
5 [label="JobSatisfaction <= 1.5\nentropy = 0.722\nsamples = 15\nvalue = [3, 12]"] ;
4 -> 5 ;
6 [label="WorkLifeBalance <= 2.5\nentropy = 1.0\nsamples = 6\nvalue = [3, 3]"] ;
5 -> 6 ;
7 [label="entropy = 0.0\nsamples = 3\nvalue = [0, 3]"] ;
6 -> 7 ;
8 [label="entropy = 0.0\nsamples = 3\nvalue = [3, 0]"] ;
6 -> 8 ;
9 [label="entropy = 0.0\nsamples = 9\nvalue = [0, 9]"] ;
5 -> 9 ;
10 [label="entropy = 0.0\nsamples = 2\nvalue = [2, 0]"] ;
4 -> 10 ;
11 [label="HourlyRate <= 84.5\nentropy = 0.759\nsamples = 41\nvalue = [32, 9]"] ;
3 -> 11 ;
12 [label="entropy = 0.0\nsamples = 21\nvalue = [21, 0]"] ;
11 -> 12 ;
13 [label="MonthlyRate <= 10134.0\nentropy = 0.993\nsamples = 20\nvalue = [11, 9]"] ;
11 -> 13 ;
14 [label="entropy = 0.0\nsamples = 5\nvalue = [5, 0]"] ;
13 -> 14 ;
15 [label="JobSatisfaction <= 1.5\nentropy = 0.971\nsamples = 15\nvalue = [6, 9]"] ;
13 -> 15 ;
16 [label="entropy = 0.0\nsamples = 4\nvalue = [0, 4]"] ;
15 -> 16 ;
17 [label="MaritalStatus <= 1.5\nentropy = 0.994\nsamples = 11\nvalue = [6, 5]"] ;
15 -> 17 ;
18 [label="entropy = 0.0\nsamples = 4\nvalue = [4, 0]"] ;
17 -> 18 ;
19 [label="TrainingTimesLastYear <= 3.5\nentropy = 0.863\nsamples = 7\nvalue = [2, 5]"] ;
17 -> 19 ;
20 [label="entropy = 0.0\nsamples = 5\nvalue = [0, 5]"] ;
19 -> 20 ;
21 [label="entropy = 0.0\nsamples = 2\nvalue = [2, 0]"] ;
19 -> 21 ;
22 [label="EnvironmentSatisfaction <= 1.5\nentropy = 0.383\nsamples = 67\nvalue = [62, 5]"] ;
2 -> 22 ;
23 [label="MonthlyRate <= 19395.0\nentropy = 0.896\nsamples = 16\nvalue = [11, 5]"] ;
22 -> 23 ;
24 [label="MonthlyRate <= 5459.0\nentropy = 1.0\nsamples = 10\nvalue = [5, 5]"] ;
23 -> 24 ;
25 [label="entropy = 0.0\nsamples = 3\nvalue = [3, 0]"] ;
24 -> 25 ;
26 [label="Education <= 4.5\nentropy = 0.863\nsamples = 7\nvalue = [2, 5]"] ;
24 -> 26 ;
27 [label="entropy = 0.0\nsamples = 5\nvalue = [0, 5]"] ;
26 -> 27 ;
28 [label="entropy = 0.0\nsamples = 2\nvalue = [2, 0]"] ;
26 -> 28 ;
29 [label="entropy = 0.0\nsamples = 6\nvalue = [6, 0]"] ;
23 -> 29 ;
30 [label="entropy = 0.0\nsamples = 51\nvalue = [51, 0]"] ;
22 -> 30 ;
31 [label="DailyRate <= 409.0\nentropy = 0.385\nsamples = 598\nvalue = [553, 45]"] ;
1 -> 31 ;
32 [label="YearsAtCompany <= 27.0\nentropy = 0.586\nsamples = 121\nvalue = [104, 17]"] ;
31 -> 32 ;
33 [label="DailyRate <= 359.5\nentropy = 0.547\nsamples = 119\nvalue = [104, 15]"] ;
32 -> 33 ;
34 [label="StockOptionLevel <= 2.5\nentropy = 0.428\nsamples = 103\nvalue = [94, 9]"] ;
33 -> 34 ;
35 [label="JobRole <= 2.5\nentropy = 0.363\nsamples = 101\nvalue = [94, 7]"] ;
34 -> 35 ;
36 [label="DistanceFromHome <= 4.5\nentropy = 0.722\nsamples = 30\nvalue = [24, 6]"] ;
35 -> 36 ;
37 [label="entropy = 0.0\nsamples = 13\nvalue = [13, 0]"] ;
36 -> 37 ;
38 [label="TotalWorkingYears <= 14.5\nentropy = 0.937\nsamples = 17\nvalue = [11, 6]"] ;
36 -> 38 ;
39 [label="MonthlyIncome <= 3214.5\nentropy = 0.994\nsamples = 11\nvalue = [5, 6]"] ;
38 -> 39 ;
40 [label="DistanceFromHome <= 7.5\nentropy = 0.954\nsamples = 8\nvalue = [5, 3]"] ;
39 -> 40 ;
41 [label="entropy = 0.0\nsamples = 2\nvalue = [0, 2]"] ;
40 -> 41 ;
42 [label="HourlyRate <= 47.0\nentropy = 0.65\nsamples = 6\nvalue = [5, 1]"] ;
40 -> 42 ;
43 [label="entropy = 0.0\nsamples = 1\nvalue = [0, 1]"] ;
42 -> 43 ;
44 [label="entropy = 0.0\nsamples = 5\nvalue = [5, 0]"] ;
42 -> 44 ;
45 [label="entropy = 0.0\nsamples = 3\nvalue = [0, 3]"] ;
39 -> 45 ;
46 [label="entropy = 0.0\nsamples = 6\nvalue = [6, 0]"] ;
38 -> 46 ;
47 [label="TrainingTimesLastYear <= 4.5\nentropy = 0.107\nsamples = 71\nvalue = [70, 1]"] ;
35 -> 47 ;
48 [label="entropy = 0.0\nsamples = 59\nvalue = [59, 0]"] ;
47 -> 48 ;
49 [label="BusinessTravel <= 1.5\nentropy = 0.414\nsamples = 12\nvalue = [11, 1]"] ;
47 -> 49 ;
50 [label="JobLevel <= 2.5\nentropy = 0.918\nsamples = 3\nvalue = [2, 1]"] ;
49 -> 50 ;
51 [label="entropy = 0.0\nsamples = 1\nvalue = [0, 1]"] ;
50 -> 51 ;
52 [label="entropy = 0.0\nsamples = 2\nvalue = [2, 0]"] ;
50 -> 52 ;
53 [label="entropy = 0.0\nsamples = 9\nvalue = [9, 0]"] ;
49 -> 53 ;
54 [label="entropy = 0.0\nsamples = 2\nvalue = [0, 2]"] ;
34 -> 54 ;
55 [label="JobSatisfaction <= 1.5\nentropy = 0.954\nsamples = 16\nvalue = [10, 6]"] ;
33 -> 55 ;
56 [label="entropy = 0.0\nsamples = 4\nvalue = [0, 4]"] ;
55 -> 56 ;
57 [label="NumCompaniesWorked <= 3.5\nentropy = 0.65\nsamples = 12\nvalue = [10, 2]"] ;
55 -> 57 ;
58 [label="entropy = 0.0\nsamples = 9\nvalue = [9, 0]"] ;
57 -> 58 ;
59 [label="HourlyRate <= 51.0\nentropy = 0.918\nsamples = 3\nvalue = [1, 2]"] ;
57 -> 59 ;
60 [label="entropy = 0.0\nsamples = 1\nvalue = [1, 0]"] ;
59 -> 60 ;
61 [label="entropy = 0.0\nsamples = 2\nvalue = [0, 2]"] ;
59 -> 61 ;
62 [label="entropy = 0.0\nsamples = 2\nvalue = [0, 2]"] ;
32 -> 62 ;
63 [label="DailyRate <= 1359.0\nentropy = 0.322\nsamples = 477\nvalue = [449, 28]"] ;
31 -> 63 ;
64 [label="DailyRate <= 1219.5\nentropy = 0.267\nsamples = 417\nvalue = [398, 19]"] ;
63 -> 64 ;
65 [label="DistanceFromHome <= 16.5\nentropy = 0.309\nsamples = 343\nvalue = [324, 19]"] ;
64 -> 65 ;
66 [label="MonthlyIncome <= 10747.5\nentropy = 0.351\nsamples = 288\nvalue = [269, 19]"] ;
65 -> 66 ;
67 [label="MonthlyIncome <= 10602.5\nentropy = 0.39\nsamples = 248\nvalue = [229, 19]"] ;
66 -> 67 ;
68 [label="MonthlyRate <= 22901.0\nentropy = 0.363\nsamples = 246\nvalue = [229, 17]"] ;
67 -> 68 ;
69 [label="Age <= 48.5\nentropy = 0.404\nsamples = 211\nvalue = [194, 17]"] ;
68 -> 69 ;
70 [label="JobSatisfaction <= 1.5\nentropy = 0.352\nsamples = 196\nvalue = [183, 13]"] ;
69 -> 70 ;
71 [label="MaritalStatus <= 1.5\nentropy = 0.669\nsamples = 40\nvalue = [33, 7]"] ;
70 -> 71 ;
72 [label="PercentSalaryHike <= 11.5\nentropy = 0.229\nsamples = 27\nvalue = [26, 1]"] ;
71 -> 72 ;
73 [label="EnvironmentSatisfaction <= 2.5\nentropy = 0.918\nsamples = 3\nvalue = [2, 1]"] ;
72 -> 73 ;
74 [label="entropy = 0.0\nsamples = 1\nvalue = [0, 1]"] ;
73 -> 74 ;
75 [label="entropy = 0.0\nsamples = 2\nvalue = [2, 0]"] ;
73 -> 75 ;
76 [label="entropy = 0.0\nsamples = 24\nvalue = [24, 0]"] ;
72 -> 76 ;
77 [label="PercentSalaryHike <= 15.0\nentropy = 0.996\nsamples = 13\nvalue = [7, 6]"] ;
71 -> 77 ;
78 [label="HourlyRate <= 80.5\nentropy = 0.544\nsamples = 8\nvalue = [7, 1]"] ;
77 -> 78 ;
79 [label="entropy = 0.0\nsamples = 6\nvalue = [6, 0]"] ;
78 -> 79 ;
80 [label="EnvironmentSatisfaction <= 3.0\nentropy = 1.0\nsamples = 2\nvalue = [1, 1]"] ;
78 -> 80 ;
81 [label="entropy = 0.0\nsamples = 1\nvalue = [0, 1]"] ;
80 -> 81 ;
82 [label="entropy = 0.0\nsamples = 1\nvalue = [1, 0]"] ;
80 -> 82 ;
83 [label="entropy = 0.0\nsamples = 5\nvalue = [0, 5]"] ;
77 -> 83 ;
84 [label="HourlyRate <= 63.5\nentropy = 0.235\nsamples = 156\nvalue = [150, 6]"] ;
70 -> 84 ;
85 [label="entropy = 0.0\nsamples = 74\nvalue = [74, 0]"] ;
84 -> 85 ;
86 [label="HourlyRate <= 85.5\nentropy = 0.378\nsamples = 82\nvalue = [76, 6]"] ;
84 -> 86 ;
87 [label="DistanceFromHome <= 14.5\nentropy = 0.529\nsamples = 50\nvalue = [44, 6]"] ;
86 -> 87 ;
88 [label="MonthlyIncome <= 2238.5\nentropy = 0.414\nsamples = 48\nvalue = [44, 4]"] ;
87 -> 88 ;
89 [label="EnvironmentSatisfaction <= 2.0\nentropy = 0.918\nsamples = 3\nvalue = [1, 2]"] ;
88 -> 89 ;
90 [label="entropy = 0.0\nsamples = 1\nvalue = [1, 0]"] ;
89 -> 90 ;
91 [label="entropy = 0.0\nsamples = 2\nvalue = [0, 2]"] ;
89 -> 91 ;
92 [label="YearsWithCurrManager <= 1.5\nentropy = 0.262\nsamples = 45\nvalue = [43, 2]"] ;
88 -> 92 ;
93 [label="entropy = 0.0\nsamples = 1\nvalue = [0, 1]"] ;
92 -> 93 ;
94 [label="MonthlyIncome <= 8583.0\nentropy = 0.156\nsamples = 44\nvalue = [43, 1]"] ;
92 -> 94 ;
95 [label="entropy = 0.0\nsamples = 42\nvalue = [42, 0]"] ;
94 -> 95 ;
96 [label="DailyRate <= 880.5\nentropy = 1.0\nsamples = 2\nvalue = [1, 1]"] ;
94 -> 96 ;
97 [label="entropy = 0.0\nsamples = 1\nvalue = [0, 1]"] ;
96 -> 97 ;
98 [label="entropy = 0.0\nsamples = 1\nvalue = [1, 0]"] ;
96 -> 98 ;
99 [label="entropy = 0.0\nsamples = 2\nvalue = [0, 2]"] ;
87 -> 99 ;
100 [label="entropy = 0.0\nsamples = 32\nvalue = [32, 0]"] ;
86 -> 100 ;
101 [label="YearsInCurrentRole <= 2.5\nentropy = 0.837\nsamples = 15\nvalue = [11, 4]"] ;
69 -> 101 ;
102 [label="entropy = 0.0\nsamples = 8\nvalue = [8, 0]"] ;
101 -> 102 ;
103 [label="WorkLifeBalance <= 2.5\nentropy = 0.985\nsamples = 7\nvalue = [3, 4]"] ;
101 -> 103 ;
104 [label="YearsWithCurrManager <= 5.0\nentropy = 0.811\nsamples = 4\nvalue = [3, 1]"] ;
103 -> 104 ;
105 [label="entropy = 0.0\nsamples = 1\nvalue = [0, 1]"] ;
104 -> 105 ;
106 [label="entropy = 0.0\nsamples = 3\nvalue = [3, 0]"] ;
104 -> 106 ;
107 [label="entropy = 0.0\nsamples = 3\nvalue = [0, 3]"] ;
103 -> 107 ;
108 [label="entropy = 0.0\nsamples = 35\nvalue = [35, 0]"] ;
68 -> 108 ;
109 [label="entropy = 0.0\nsamples = 2\nvalue = [0, 2]"] ;
67 -> 109 ;
110 [label="entropy = 0.0\nsamples = 40\nvalue = [40, 0]"] ;
66 -> 110 ;
111 [label="entropy = 0.0\nsamples = 55\nvalue = [55, 0]"] ;
65 -> 111 ;
112 [label="entropy = 0.0\nsamples = 74\nvalue = [74, 0]"] ;
64 -> 112 ;
113 [label="DailyRate <= 1376.5\nentropy = 0.61\nsamples = 60\nvalue = [51, 9]"] ;
63 -> 113 ;
114 [label="StockOptionLevel <= 0.5\nentropy = 0.954\nsamples = 8\nvalue = [3, 5]"] ;
113 -> 114 ;
115 [label="entropy = 0.0\nsamples = 4\nvalue = [0, 4]"] ;
114 -> 115 ;
116 [label="DistanceFromHome <= 1.5\nentropy = 0.811\nsamples = 4\nvalue = [3, 1]"] ;
114 -> 116 ;
117 [label="entropy = 0.0\nsamples = 1\nvalue = [0, 1]"] ;
116 -> 117 ;
118 [label="entropy = 0.0\nsamples = 3\nvalue = [3, 0]"] ;
116 -> 118 ;
119 [label="HourlyRate <= 96.5\nentropy = 0.391\nsamples = 52\nvalue = [48, 4]"] ;
113 -> 119 ;
120 [label="TotalWorkingYears <= 6.5\nentropy = 0.25\nsamples = 48\nvalue = [46, 2]"] ;
119 -> 120 ;
121 [label="MonthlyRate <= 18491.0\nentropy = 0.764\nsamples = 9\nvalue = [7, 2]"] ;
120 -> 121 ;
122 [label="entropy = 0.0\nsamples = 6\nvalue = [6, 0]"] ;
121 -> 122 ;
123 [label="NumCompaniesWorked <= 3.0\nentropy = 0.918\nsamples = 3\nvalue = [1, 2]"] ;
121 -> 123 ;
124 [label="entropy = 0.0\nsamples = 1\nvalue = [1, 0]"] ;
123 -> 124 ;
125 [label="entropy = 0.0\nsamples = 2\nvalue = [0, 2]"] ;
123 -> 125 ;
126 [label="entropy = 0.0\nsamples = 39\nvalue = [39, 0]"] ;
120 -> 126 ;
127 [label="TrainingTimesLastYear <= 2.5\nentropy = 1.0\nsamples = 4\nvalue = [2, 2]"] ;
119 -> 127 ;
128 [label="entropy = 0.0\nsamples = 2\nvalue = [0, 2]"] ;
127 -> 128 ;
129 [label="entropy = 0.0\nsamples = 2\nvalue = [2, 0]"] ;
127 -> 129 ;
130 [label="MonthlyIncome <= 3485.0\nentropy = 0.915\nsamples = 306\nvalue = [205, 101]"] ;
0 -> 130 [labeldistance=2.5, labelangle=-45, headlabel="False"] ;
131 [label="MonthlyIncome <= 2124.0\nentropy = 0.984\nsamples = 106\nvalue = [45, 61]"] ;
130 -> 131 ;
132 [label="DistanceFromHome <= 1.5\nentropy = 0.337\nsamples = 16\nvalue = [1, 15]"] ;
131 -> 132 ;
133 [label="entropy = 0.0\nsamples = 1\nvalue = [1, 0]"] ;
132 -> 133 ;
134 [label="entropy = 0.0\nsamples = 15\nvalue = [0, 15]"] ;
132 -> 134 ;
135 [label="Age <= 33.5\nentropy = 1.0\nsamples = 90\nvalue = [44, 46]"] ;
131 -> 135 ;
136 [label="MonthlyRate <= 7106.5\nentropy = 0.937\nsamples = 51\nvalue = [18, 33]"] ;
135 -> 136 ;
137 [label="entropy = 0.0\nsamples = 10\nvalue = [0, 10]"] ;
136 -> 137 ;
138 [label="YearsInCurrentRole <= 3.5\nentropy = 0.989\nsamples = 41\nvalue = [18, 23]"] ;
136 -> 138 ;
139 [label="MaritalStatus <= 0.5\nentropy = 0.918\nsamples = 33\nvalue = [11, 22]"] ;
138 -> 139 ;
140 [label="JobRole <= 7.0\nentropy = 0.863\nsamples = 7\nvalue = [5, 2]"] ;
139 -> 140 ;
141 [label="entropy = 0.0\nsamples = 5\nvalue = [5, 0]"] ;
140 -> 141 ;
142 [label="entropy = 0.0\nsamples = 2\nvalue = [0, 2]"] ;
140 -> 142 ;
143 [label="PercentSalaryHike <= 16.5\nentropy = 0.779\nsamples = 26\nvalue = [6, 20]"] ;
139 -> 143 ;
144 [label="BusinessTravel <= 1.5\nentropy = 0.918\nsamples = 18\nvalue = [6, 12]"] ;
143 -> 144 ;
145 [label="entropy = 0.0\nsamples = 5\nvalue = [0, 5]"] ;
144 -> 145 ;
146 [label="TotalWorkingYears <= 4.5\nentropy = 0.996\nsamples = 13\nvalue = [6, 7]"] ;
144 -> 146 ;
147 [label="DailyRate <= 1327.0\nentropy = 0.971\nsamples = 10\nvalue = [6, 4]"] ;
146 -> 147 ;
148 [label="EnvironmentSatisfaction <= 3.5\nentropy = 0.811\nsamples = 8\nvalue = [6, 2]"] ;
147 -> 148 ;
149 [label="entropy = 0.0\nsamples = 6\nvalue = [6, 0]"] ;
148 -> 149 ;
150 [label="entropy = 0.0\nsamples = 2\nvalue = [0, 2]"] ;
148 -> 150 ;
151 [label="entropy = 0.0\nsamples = 2\nvalue = [0, 2]"] ;
147 -> 151 ;
152 [label="entropy = 0.0\nsamples = 3\nvalue = [0, 3]"] ;
146 -> 152 ;
153 [label="entropy = 0.0\nsamples = 8\nvalue = [0, 8]"] ;
143 -> 153 ;
154 [label="YearsSinceLastPromotion <= 6.5\nentropy = 0.544\nsamples = 8\nvalue = [7, 1]"] ;
138 -> 154 ;
155 [label="entropy = 0.0\nsamples = 7\nvalue = [7, 0]"] ;
154 -> 155 ;
156 [label="entropy = 0.0\nsamples = 1\nvalue = [0, 1]"] ;
154 -> 156 ;
157 [label="BusinessTravel <= 1.5\nentropy = 0.918\nsamples = 39\nvalue = [26, 13]"] ;
135 -> 157 ;
158 [label="DailyRate <= 1119.0\nentropy = 0.881\nsamples = 10\nvalue = [3, 7]"] ;
157 -> 158 ;
159 [label="entropy = 0.0\nsamples = 7\nvalue = [0, 7]"] ;
158 -> 159 ;
160 [label="entropy = 0.0\nsamples = 3\nvalue = [3, 0]"] ;
158 -> 160 ;
161 [label="JobInvolvement <= 3.5\nentropy = 0.736\nsamples = 29\nvalue = [23, 6]"] ;
157 -> 161 ;
162 [label="EnvironmentSatisfaction <= 1.5\nentropy = 0.845\nsamples = 22\nvalue = [16, 6]"] ;
161 -> 162 ;
163 [label="entropy = 0.0\nsamples = 2\nvalue = [0, 2]"] ;
162 -> 163 ;
164 [label="HourlyRate <= 67.5\nentropy = 0.722\nsamples = 20\nvalue = [16, 4]"] ;
162 -> 164 ;
165 [label="entropy = 0.0\nsamples = 9\nvalue = [9, 0]"] ;
164 -> 165 ;
166 [label="MonthlyRate <= 11349.5\nentropy = 0.946\nsamples = 11\nvalue = [7, 4]"] ;
164 -> 166 ;
167 [label="entropy = 0.0\nsamples = 2\nvalue = [0, 2]"] ;
166 -> 167 ;
168 [label="TotalWorkingYears <= 4.5\nentropy = 0.764\nsamples = 9\nvalue = [7, 2]"] ;
166 -> 168 ;
169 [label="Age <= 35.0\nentropy = 0.918\nsamples = 3\nvalue = [1, 2]"] ;
168 -> 169 ;
170 [label="entropy = 0.0\nsamples = 1\nvalue = [1, 0]"] ;
169 -> 170 ;
171 [label="entropy = 0.0\nsamples = 2\nvalue = [0, 2]"] ;
169 -> 171 ;
172 [label="entropy = 0.0\nsamples = 6\nvalue = [6, 0]"] ;
168 -> 172 ;
173 [label="entropy = 0.0\nsamples = 7\nvalue = [7, 0]"] ;
161 -> 173 ;
174 [label="StockOptionLevel <= 0.5\nentropy = 0.722\nsamples = 200\nvalue = [160, 40]"] ;
130 -> 174 ;
175 [label="EnvironmentSatisfaction <= 2.5\nentropy = 0.922\nsamples = 83\nvalue = [55, 28]"] ;
174 -> 175 ;
176 [label="DistanceFromHome <= 4.0\nentropy = 0.987\nsamples = 30\nvalue = [13, 17]"] ;
175 -> 176 ;
177 [label="HourlyRate <= 90.5\nentropy = 0.779\nsamples = 13\nvalue = [10, 3]"] ;
176 -> 177 ;
178 [label="entropy = 0.0\nsamples = 8\nvalue = [8, 0]"] ;
177 -> 178 ;
179 [label="Age <= 38.5\nentropy = 0.971\nsamples = 5\nvalue = [2, 3]"] ;
177 -> 179 ;
180 [label="entropy = 0.0\nsamples = 2\nvalue = [2, 0]"] ;
179 -> 180 ;
181 [label="entropy = 0.0\nsamples = 3\nvalue = [0, 3]"] ;
179 -> 181 ;
182 [label="NumCompaniesWorked <= 3.5\nentropy = 0.672\nsamples = 17\nvalue = [3, 14]"] ;
176 -> 182 ;
183 [label="Age <= 36.0\nentropy = 0.918\nsamples = 9\nvalue = [3, 6]"] ;
182 -> 183 ;
184 [label="entropy = 0.0\nsamples = 6\nvalue = [0, 6]"] ;
183 -> 184 ;
185 [label="entropy = 0.0\nsamples = 3\nvalue = [3, 0]"] ;
183 -> 185 ;
186 [label="entropy = 0.0\nsamples = 8\nvalue = [0, 8]"] ;
182 -> 186 ;
187 [label="MonthlyRate <= 9206.0\nentropy = 0.737\nsamples = 53\nvalue = [42, 11]"] ;
175 -> 187 ;
188 [label="entropy = 0.0\nsamples = 14\nvalue = [14, 0]"] ;
187 -> 188 ;
189 [label="Department <= 1.5\nentropy = 0.858\nsamples = 39\nvalue = [28, 11]"] ;
187 -> 189 ;
190 [label="Age <= 56.5\nentropy = 0.605\nsamples = 27\nvalue = [23, 4]"] ;
189 -> 190 ;
191 [label="Age <= 33.0\nentropy = 0.402\nsamples = 25\nvalue = [23, 2]"] ;
190 -> 191 ;
192 [label="TotalWorkingYears <= 9.5\nentropy = 0.918\nsamples = 6\nvalue = [4, 2]"] ;
191 -> 192 ;
193 [label="entropy = 0.0\nsamples = 2\nvalue = [0, 2]"] ;
192 -> 193 ;
194 [label="entropy = 0.0\nsamples = 4\nvalue = [4, 0]"] ;
192 -> 194 ;
195 [label="entropy = 0.0\nsamples = 19\nvalue = [19, 0]"] ;
191 -> 195 ;
196 [label="entropy = 0.0\nsamples = 2\nvalue = [0, 2]"] ;
190 -> 196 ;
197 [label="PercentSalaryHike <= 17.0\nentropy = 0.98\nsamples = 12\nvalue = [5, 7]"] ;
189 -> 197 ;
198 [label="NumCompaniesWorked <= 1.5\nentropy = 0.954\nsamples = 8\nvalue = [5, 3]"] ;
197 -> 198 ;
199 [label="entropy = 0.0\nsamples = 4\nvalue = [4, 0]"] ;
198 -> 199 ;
200 [label="TotalWorkingYears <= 15.0\nentropy = 0.811\nsamples = 4\nvalue = [1, 3]"] ;
198 -> 200 ;
201 [label="entropy = 0.0\nsamples = 3\nvalue = [0, 3]"] ;
200 -> 201 ;
202 [label="entropy = 0.0\nsamples = 1\nvalue = [1, 0]"] ;
200 -> 202 ;
203 [label="entropy = 0.0\nsamples = 4\nvalue = [0, 4]"] ;
197 -> 203 ;
204 [label="YearsInCurrentRole <= 7.5\nentropy = 0.477\nsamples = 117\nvalue = [105, 12]"] ;
174 -> 204 ;
205 [label="YearsSinceLastPromotion <= 1.5\nentropy = 0.601\nsamples = 82\nvalue = [70, 12]"] ;
204 -> 205 ;
206 [label="EducationField <= 0.5\nentropy = 0.294\nsamples = 58\nvalue = [55, 3]"] ;
205 -> 206 ;
207 [label="entropy = 0.0\nsamples = 1\nvalue = [0, 1]"] ;
206 -> 207 ;
208 [label="Age <= 23.0\nentropy = 0.219\nsamples = 57\nvalue = [55, 2]"] ;
206 -> 208 ;
209 [label="entropy = 0.0\nsamples = 1\nvalue = [0, 1]"] ;
208 -> 209 ;
210 [label="MonthlyIncome <= 19686.0\nentropy = 0.129\nsamples = 56\nvalue = [55, 1]"] ;
208 -> 210 ;
211 [label="entropy = 0.0\nsamples = 55\nvalue = [55, 0]"] ;
210 -> 211 ;
212 [label="entropy = 0.0\nsamples = 1\nvalue = [0, 1]"] ;
210 -> 212 ;
213 [label="StockOptionLevel <= 2.5\nentropy = 0.954\nsamples = 24\nvalue = [15, 9]"] ;
205 -> 213 ;
214 [label="DailyRate <= 689.5\nentropy = 0.863\nsamples = 21\nvalue = [15, 6]"] ;
213 -> 214 ;
215 [label="DailyRate <= 512.0\nentropy = 0.994\nsamples = 11\nvalue = [5, 6]"] ;
214 -> 215 ;
216 [label="DistanceFromHome <= 18.5\nentropy = 0.863\nsamples = 7\nvalue = [5, 2]"] ;
215 -> 216 ;
217 [label="entropy = 0.0\nsamples = 5\nvalue = [5, 0]"] ;
216 -> 217 ;
218 [label="entropy = 0.0\nsamples = 2\nvalue = [0, 2]"] ;
216 -> 218 ;
219 [label="entropy = 0.0\nsamples = 4\nvalue = [0, 4]"] ;
215 -> 219 ;
220 [label="entropy = 0.0\nsamples = 10\nvalue = [10, 0]"] ;
214 -> 220 ;
221 [label="entropy = 0.0\nsamples = 3\nvalue = [0, 3]"] ;
213 -> 221 ;
222 [label="entropy = 0.0\nsamples = 35\nvalue = [35, 0]"] ;
204 -> 222 ;
}